Language model created by QuickLM on Sat Jun  6 18:41:09 EDT 2015
Copyright (c) 1996-2010 Carnegie Mellon University and Alexander I. Rudnicky

The model is in standard ARPA format, designed by Doug Paul while he was at MITRE.

The code that was used to produce this language model is available in Open Source.
Please visit http://www.speech.cs.cmu.edu/tools/ for more information

The (fixed) discount mass is 0.5. The backoffs are computed using the ratio method.
This model based on a corpus of 38 sentences and 40 words

\data\
ngram 1=40
ngram 2=76
ngram 3=38

\1-grams:
-0.7782 </s> -0.3010
-0.7782 <s> -0.2218
-2.3579 AND -0.2218
-2.3579 BILLION -0.2218
-2.3579 EIGHT -0.2218
-2.3579 EIGHTEEN -0.2218
-2.3579 EIGHTY -0.2218
-2.3579 ELEVEN -0.2218
-2.3579 FIFTEEN -0.2218
-2.3579 FIFTY -0.2218
-2.3579 FIVE -0.2218
-2.3579 FORTY -0.2218
-2.3579 FOUR -0.2218
-2.3579 FOURTEEN -0.2218
-2.3579 GOOGOL -0.2218
-2.3579 HUNDRED -0.2218
-2.3579 MILLION -0.2218
-2.3579 NINE -0.2218
-2.3579 NINETEEN -0.2218
-2.3579 NINETY -0.2218
-2.3579 ONE -0.2218
-2.3579 QUADRILLION -0.2218
-2.3579 QUINTILLION -0.2218
-2.3579 SEPTILLION -0.2218
-2.3579 SEVEN -0.2218
-2.3579 SEVENTEEN -0.2218
-2.3579 SEVENTY -0.2218
-2.3579 SEXTILLION -0.2218
-2.3579 SIX -0.2218
-2.3579 SIXTEEN -0.2218
-2.3579 SIXTY -0.2218
-2.3579 TEN -0.2218
-2.3579 THIRTEEN -0.2218
-2.3579 THIRTY -0.2218
-2.3579 THOUSAND -0.2218
-2.3579 THREE -0.2218
-2.3579 TRILLION -0.2218
-2.3579 TWELVE -0.2218
-2.3579 TWENTY -0.2218
-2.3579 TWO -0.2218

\2-grams:
-1.8808 <s> AND 0.0000
-1.8808 <s> BILLION 0.0000
-1.8808 <s> EIGHT 0.0000
-1.8808 <s> EIGHTEEN 0.0000
-1.8808 <s> EIGHTY 0.0000
-1.8808 <s> ELEVEN 0.0000
-1.8808 <s> FIFTEEN 0.0000
-1.8808 <s> FIFTY 0.0000
-1.8808 <s> FIVE 0.0000
-1.8808 <s> FORTY 0.0000
-1.8808 <s> FOUR 0.0000
-1.8808 <s> FOURTEEN 0.0000
-1.8808 <s> GOOGOL 0.0000
-1.8808 <s> HUNDRED 0.0000
-1.8808 <s> MILLION 0.0000
-1.8808 <s> NINE 0.0000
-1.8808 <s> NINETEEN 0.0000
-1.8808 <s> NINETY 0.0000
-1.8808 <s> ONE 0.0000
-1.8808 <s> QUADRILLION 0.0000
-1.8808 <s> QUINTILLION 0.0000
-1.8808 <s> SEPTILLION 0.0000
-1.8808 <s> SEVEN 0.0000
-1.8808 <s> SEVENTEEN 0.0000
-1.8808 <s> SEVENTY 0.0000
-1.8808 <s> SEXTILLION 0.0000
-1.8808 <s> SIX 0.0000
-1.8808 <s> SIXTEEN 0.0000
-1.8808 <s> SIXTY 0.0000
-1.8808 <s> TEN 0.0000
-1.8808 <s> THIRTEEN 0.0000
-1.8808 <s> THIRTY 0.0000
-1.8808 <s> THOUSAND 0.0000
-1.8808 <s> THREE 0.0000
-1.8808 <s> TRILLION 0.0000
-1.8808 <s> TWELVE 0.0000
-1.8808 <s> TWENTY 0.0000
-1.8808 <s> TWO 0.0000
-0.3010 AND </s> -0.3010
-0.3010 BILLION </s> -0.3010
-0.3010 EIGHT </s> -0.3010
-0.3010 EIGHTEEN </s> -0.3010
-0.3010 EIGHTY </s> -0.3010
-0.3010 ELEVEN </s> -0.3010
-0.3010 FIFTEEN </s> -0.3010
-0.3010 FIFTY </s> -0.3010
-0.3010 FIVE </s> -0.3010
-0.3010 FORTY </s> -0.3010
-0.3010 FOUR </s> -0.3010
-0.3010 FOURTEEN </s> -0.3010
-0.3010 GOOGOL </s> -0.3010
-0.3010 HUNDRED </s> -0.3010
-0.3010 MILLION </s> -0.3010
-0.3010 NINE </s> -0.3010
-0.3010 NINETEEN </s> -0.3010
-0.3010 NINETY </s> -0.3010
-0.3010 ONE </s> -0.3010
-0.3010 QUADRILLION </s> -0.3010
-0.3010 QUINTILLION </s> -0.3010
-0.3010 SEPTILLION </s> -0.3010
-0.3010 SEVEN </s> -0.3010
-0.3010 SEVENTEEN </s> -0.3010
-0.3010 SEVENTY </s> -0.3010
-0.3010 SEXTILLION </s> -0.3010
-0.3010 SIX </s> -0.3010
-0.3010 SIXTEEN </s> -0.3010
-0.3010 SIXTY </s> -0.3010
-0.3010 TEN </s> -0.3010
-0.3010 THIRTEEN </s> -0.3010
-0.3010 THIRTY </s> -0.3010
-0.3010 THOUSAND </s> -0.3010
-0.3010 THREE </s> -0.3010
-0.3010 TRILLION </s> -0.3010
-0.3010 TWELVE </s> -0.3010
-0.3010 TWENTY </s> -0.3010
-0.3010 TWO </s> -0.3010

\3-grams:
-0.3010 <s> AND </s>
-0.3010 <s> BILLION </s>
-0.3010 <s> EIGHT </s>
-0.3010 <s> EIGHTEEN </s>
-0.3010 <s> EIGHTY </s>
-0.3010 <s> ELEVEN </s>
-0.3010 <s> FIFTEEN </s>
-0.3010 <s> FIFTY </s>
-0.3010 <s> FIVE </s>
-0.3010 <s> FORTY </s>
-0.3010 <s> FOUR </s>
-0.3010 <s> FOURTEEN </s>
-0.3010 <s> GOOGOL </s>
-0.3010 <s> HUNDRED </s>
-0.3010 <s> MILLION </s>
-0.3010 <s> NINE </s>
-0.3010 <s> NINETEEN </s>
-0.3010 <s> NINETY </s>
-0.3010 <s> ONE </s>
-0.3010 <s> QUADRILLION </s>
-0.3010 <s> QUINTILLION </s>
-0.3010 <s> SEPTILLION </s>
-0.3010 <s> SEVEN </s>
-0.3010 <s> SEVENTEEN </s>
-0.3010 <s> SEVENTY </s>
-0.3010 <s> SEXTILLION </s>
-0.3010 <s> SIX </s>
-0.3010 <s> SIXTEEN </s>
-0.3010 <s> SIXTY </s>
-0.3010 <s> TEN </s>
-0.3010 <s> THIRTEEN </s>
-0.3010 <s> THIRTY </s>
-0.3010 <s> THOUSAND </s>
-0.3010 <s> THREE </s>
-0.3010 <s> TRILLION </s>
-0.3010 <s> TWELVE </s>
-0.3010 <s> TWENTY </s>
-0.3010 <s> TWO </s>

\end\
