Language model created by QuickLM on Thu Jun 11 20:30:02 EDT 2015
Copyright (c) 1996-2010 Carnegie Mellon University and Alexander I. Rudnicky

The model is in standard ARPA format, designed by Doug Paul while he was at MITRE.

The code that was used to produce this language model is available in Open Source.
Please visit http://www.speech.cs.cmu.edu/tools/ for more information

The (fixed) discount mass is 0.5. The backoffs are computed using the ratio method.
This model based on a corpus of 99 sentences and 101 words

\data\
ngram 1=101
ngram 2=198
ngram 3=108

\1-grams:
-2.7868 1 -0.2244
-2.7868 2 -0.2244
-2.7868 3 -0.2244
-2.7868 4 -0.2244
-2.7868 5 -0.2244
-2.7868 6 -0.2244
-2.7868 7 -0.2244
-2.7868 8 -0.2244
-2.7868 9 -0.2244
-0.7911 </s> -0.3010
-0.7911 <s> -0.2227
-2.7868 A -0.2244
-2.7868 Alt_L -0.2244
-2.7868 APOSTROPHE -0.2244
-2.7868 B -0.2244
-2.7868 backslash -0.2244
-2.7868 BackSpace -0.2244
-2.7868 BEGIN -0.2244
-2.7868 bracketleft -0.2244
-2.7868 bracketright -0.2244
-2.7868 C -0.2244
-2.7868 Caps_Lock -0.2244
-2.7868 CLICK -0.2244
-2.7868 comma -0.2244
-2.7868 Control_L -0.2244
-2.7868 D -0.2244
-2.4857 Delete -0.2244
-2.7868 Down -0.2244
-2.7868 E -0.2244
-2.4857 End -0.2244
-2.7868 EQUAL -0.2244
-2.7868 Escape -0.2244
-2.7868 F -0.2244
-2.7868 F1 -0.2244
-2.7868 F10 -0.2244
-2.7868 F11 -0.2244
-2.7868 F12 -0.2244
-2.7868 F2 -0.2244
-2.7868 F3 -0.2244
-2.7868 F4 -0.2244
-2.7868 F5 -0.2244
-2.7868 F6 -0.2244
-2.7868 F7 -0.2244
-2.7868 F8 -0.2244
-2.7868 F9 -0.2244
-2.7868 G -0.2244
-2.7868 grave -0.2244
-2.7868 H -0.2244
-2.7868 HOLD -0.2244
-2.7868 Home -0.2244
-2.7868 I -0.2244
-2.7868 Insert -0.2244
-2.7868 J -0.2244
-2.7868 K -0.2244
-2.7868 KEY -0.2244
-2.7868 L -0.2244
-2.7868 Left -0.2244
-2.7868 LEFT_BUTTON -0.2244
-2.7868 LIST -0.2244
-2.7868 M -0.2244
-2.0086 MACRO -0.2953
-2.7868 Menu -0.2244
-2.7868 Meta_L -0.2244
-2.7868 MIDDLE_BUTTON -0.2244
-2.7868 minus -0.2244
-2.3096 MODE -0.2989
-2.7868 MOUSE -0.2244
-2.7868 Multi_key -0.2244
-2.7868 N -0.2244
-2.7868 Num_Lock -0.2244
-2.7868 O -0.2244
-2.7868 P -0.2244
-2.7868 Page_Down -0.2244
-2.7868 Page_Up -0.2244
-2.7868 Pause -0.2244
-2.7868 period -0.2244
-2.7868 PLAY -0.2244
-2.7868 Print -0.2244
-2.7868 Q -0.2244
-2.7868 R -0.2244
-2.7868 RELEASE -0.2244
-2.7868 REPEAT -0.2244
-2.7868 REPLAY -0.2244
-2.7868 Return -0.2244
-2.7868 Right -0.2244
-2.7868 RIGHT_BUTTON -0.2244
-2.7868 S -0.2244
-2.7868 semicolon -0.2244
-2.7868 Shift_L -0.2244
-2.7868 slash -0.2244
-2.7868 Super_L -0.2244
-2.7868 T -0.2244
-2.7868 Tab -0.2244
-2.7868 U -0.2244
-2.7868 Up -0.2244
-2.7868 V -0.2244
-2.7868 W -0.2244
-2.7868 WORD -0.2244
-2.7868 X -0.2244
-2.7868 Y -0.2244
-2.7868 Z -0.2244

\2-grams:
-0.3010 1 </s> -0.3010
-0.3010 2 </s> -0.3010
-0.3010 3 </s> -0.3010
-0.3010 4 </s> -0.3010
-0.3010 5 </s> -0.3010
-0.3010 6 </s> -0.3010
-0.3010 7 </s> -0.3010
-0.3010 8 </s> -0.3010
-0.3010 9 </s> -0.3010
-2.2967 <s> 1 0.0000
-2.2967 <s> 2 0.0000
-2.2967 <s> 3 0.0000
-2.2967 <s> 4 0.0000
-2.2967 <s> 5 0.0000
-2.2967 <s> 6 0.0000
-2.2967 <s> 7 0.0000
-2.2967 <s> 8 0.0000
-2.2967 <s> 9 0.0000
-2.2967 <s> A 0.0000
-2.2967 <s> Alt_L 0.0000
-2.2967 <s> APOSTROPHE 0.0000
-2.2967 <s> B 0.0000
-2.2967 <s> backslash 0.0000
-2.2967 <s> BackSpace 0.0000
-2.2967 <s> bracketleft 0.0000
-2.2967 <s> bracketright 0.0000
-2.2967 <s> C 0.0000
-2.2967 <s> Caps_Lock 0.0000
-2.2967 <s> CLICK 0.0000
-2.2967 <s> comma 0.0000
-2.2967 <s> Control_L 0.0000
-2.2967 <s> D 0.0000
-2.2967 <s> Delete 0.0000
-2.2967 <s> Down 0.0000
-2.2967 <s> E 0.0000
-2.2967 <s> End 0.0000
-2.2967 <s> EQUAL 0.0000
-2.2967 <s> Escape 0.0000
-2.2967 <s> F 0.0000
-2.2967 <s> F1 0.0000
-2.2967 <s> F10 0.0000
-2.2967 <s> F11 0.0000
-2.2967 <s> F12 0.0000
-2.2967 <s> F2 0.0000
-2.2967 <s> F3 0.0000
-2.2967 <s> F4 0.0000
-2.2967 <s> F5 0.0000
-2.2967 <s> F6 0.0000
-2.2967 <s> F7 0.0000
-2.2967 <s> F8 0.0000
-2.2967 <s> F9 0.0000
-2.2967 <s> G 0.0000
-2.2967 <s> grave 0.0000
-2.2967 <s> H 0.0000
-2.2967 <s> HOLD 0.0000
-2.2967 <s> Home 0.0000
-2.2967 <s> I 0.0000
-2.2967 <s> Insert 0.0000
-2.2967 <s> J 0.0000
-2.2967 <s> K 0.0000
-2.2967 <s> L 0.0000
-2.2967 <s> Left 0.0000
-2.2967 <s> LEFT_BUTTON 0.0000
-2.2967 <s> M 0.0000
-1.5185 <s> MACRO 0.0000
-2.2967 <s> Menu 0.0000
-2.2967 <s> Meta_L 0.0000
-2.2967 <s> MIDDLE_BUTTON 0.0000
-2.2967 <s> minus 0.0000
-1.8195 <s> MODE 0.0000
-2.2967 <s> Multi_key 0.0000
-2.2967 <s> N 0.0000
-2.2967 <s> Num_Lock 0.0000
-2.2967 <s> O 0.0000
-2.2967 <s> P 0.0000
-2.2967 <s> Page_Down 0.0000
-2.2967 <s> Page_Up 0.0000
-2.2967 <s> Pause 0.0000
-2.2967 <s> period 0.0000
-2.2967 <s> Print 0.0000
-2.2967 <s> Q 0.0000
-2.2967 <s> R 0.0000
-2.2967 <s> RELEASE 0.0000
-2.2967 <s> REPEAT 0.0000
-2.2967 <s> Return 0.0000
-2.2967 <s> Right 0.0000
-2.2967 <s> RIGHT_BUTTON 0.0000
-2.2967 <s> S 0.0000
-2.2967 <s> semicolon 0.0000
-2.2967 <s> Shift_L 0.0000
-2.2967 <s> slash 0.0000
-2.2967 <s> Super_L 0.0000
-2.2967 <s> T 0.0000
-2.2967 <s> Tab 0.0000
-2.2967 <s> U 0.0000
-2.2967 <s> Up 0.0000
-2.2967 <s> V 0.0000
-2.2967 <s> W 0.0000
-2.2967 <s> X 0.0000
-2.2967 <s> Y 0.0000
-2.2967 <s> Z 0.0000
-0.3010 A </s> -0.3010
-0.3010 Alt_L </s> -0.3010
-0.3010 APOSTROPHE </s> -0.3010
-0.3010 B </s> -0.3010
-0.3010 backslash </s> -0.3010
-0.3010 BackSpace </s> -0.3010
-0.3010 BEGIN </s> -0.3010
-0.3010 bracketleft </s> -0.3010
-0.3010 bracketright </s> -0.3010
-0.3010 C </s> -0.3010
-0.3010 Caps_Lock </s> -0.3010
-0.3010 CLICK </s> -0.3010
-0.3010 comma </s> -0.3010
-0.3010 Control_L </s> -0.3010
-0.3010 D </s> -0.3010
-0.3010 Delete </s> -0.3010
-0.3010 Down </s> -0.3010
-0.3010 E </s> -0.3010
-0.3010 End </s> -0.3010
-0.3010 EQUAL </s> -0.3010
-0.3010 Escape </s> -0.3010
-0.3010 F </s> -0.3010
-0.3010 F1 </s> -0.3010
-0.3010 F10 </s> -0.3010
-0.3010 F11 </s> -0.3010
-0.3010 F12 </s> -0.3010
-0.3010 F2 </s> -0.3010
-0.3010 F3 </s> -0.3010
-0.3010 F4 </s> -0.3010
-0.3010 F5 </s> -0.3010
-0.3010 F6 </s> -0.3010
-0.3010 F7 </s> -0.3010
-0.3010 F8 </s> -0.3010
-0.3010 F9 </s> -0.3010
-0.3010 G </s> -0.3010
-0.3010 grave </s> -0.3010
-0.3010 H </s> -0.3010
-0.3010 HOLD </s> -0.3010
-0.3010 Home </s> -0.3010
-0.3010 I </s> -0.3010
-0.3010 Insert </s> -0.3010
-0.3010 J </s> -0.3010
-0.3010 K </s> -0.3010
-0.3010 KEY </s> -0.3010
-0.3010 L </s> -0.3010
-0.3010 Left </s> -0.3010
-0.3010 LEFT_BUTTON </s> -0.3010
-0.3010 LIST </s> -0.3010
-0.3010 M </s> -0.3010
-1.0792 MACRO BEGIN 0.0000
-1.0792 MACRO Delete 0.0000
-1.0792 MACRO End 0.0000
-1.0792 MACRO LIST 0.0000
-1.0792 MACRO PLAY 0.0000
-1.0792 MACRO REPLAY 0.0000
-0.3010 Menu </s> -0.3010
-0.3010 Meta_L </s> -0.3010
-0.3010 MIDDLE_BUTTON </s> -0.3010
-0.3010 minus </s> -0.3010
-0.7782 MODE KEY 0.0000
-0.7782 MODE MOUSE 0.0000
-0.7782 MODE WORD 0.0000
-0.3010 MOUSE </s> -0.3010
-0.3010 Multi_key </s> -0.3010
-0.3010 N </s> -0.3010
-0.3010 Num_Lock </s> -0.3010
-0.3010 O </s> -0.3010
-0.3010 P </s> -0.3010
-0.3010 Page_Down </s> -0.3010
-0.3010 Page_Up </s> -0.3010
-0.3010 Pause </s> -0.3010
-0.3010 period </s> -0.3010
-0.3010 PLAY </s> -0.3010
-0.3010 Print </s> -0.3010
-0.3010 Q </s> -0.3010
-0.3010 R </s> -0.3010
-0.3010 RELEASE </s> -0.3010
-0.3010 REPEAT </s> -0.3010
-0.3010 REPLAY </s> -0.3010
-0.3010 Return </s> -0.3010
-0.3010 Right </s> -0.3010
-0.3010 RIGHT_BUTTON </s> -0.3010
-0.3010 S </s> -0.3010
-0.3010 semicolon </s> -0.3010
-0.3010 Shift_L </s> -0.3010
-0.3010 slash </s> -0.3010
-0.3010 Super_L </s> -0.3010
-0.3010 T </s> -0.3010
-0.3010 Tab </s> -0.3010
-0.3010 U </s> -0.3010
-0.3010 Up </s> -0.3010
-0.3010 V </s> -0.3010
-0.3010 W </s> -0.3010
-0.3010 WORD </s> -0.3010
-0.3010 X </s> -0.3010
-0.3010 Y </s> -0.3010
-0.3010 Z </s> -0.3010

\3-grams:
-0.3010 <s> 1 </s>
-0.3010 <s> 2 </s>
-0.3010 <s> 3 </s>
-0.3010 <s> 4 </s>
-0.3010 <s> 5 </s>
-0.3010 <s> 6 </s>
-0.3010 <s> 7 </s>
-0.3010 <s> 8 </s>
-0.3010 <s> 9 </s>
-0.3010 <s> A </s>
-0.3010 <s> Alt_L </s>
-0.3010 <s> APOSTROPHE </s>
-0.3010 <s> B </s>
-0.3010 <s> backslash </s>
-0.3010 <s> BackSpace </s>
-0.3010 <s> bracketleft </s>
-0.3010 <s> bracketright </s>
-0.3010 <s> C </s>
-0.3010 <s> Caps_Lock </s>
-0.3010 <s> CLICK </s>
-0.3010 <s> comma </s>
-0.3010 <s> Control_L </s>
-0.3010 <s> D </s>
-0.3010 <s> Delete </s>
-0.3010 <s> Down </s>
-0.3010 <s> E </s>
-0.3010 <s> End </s>
-0.3010 <s> EQUAL </s>
-0.3010 <s> Escape </s>
-0.3010 <s> F </s>
-0.3010 <s> F1 </s>
-0.3010 <s> F10 </s>
-0.3010 <s> F11 </s>
-0.3010 <s> F12 </s>
-0.3010 <s> F2 </s>
-0.3010 <s> F3 </s>
-0.3010 <s> F4 </s>
-0.3010 <s> F5 </s>
-0.3010 <s> F6 </s>
-0.3010 <s> F7 </s>
-0.3010 <s> F8 </s>
-0.3010 <s> F9 </s>
-0.3010 <s> G </s>
-0.3010 <s> grave </s>
-0.3010 <s> H </s>
-0.3010 <s> HOLD </s>
-0.3010 <s> Home </s>
-0.3010 <s> I </s>
-0.3010 <s> Insert </s>
-0.3010 <s> J </s>
-0.3010 <s> K </s>
-0.3010 <s> L </s>
-0.3010 <s> Left </s>
-0.3010 <s> LEFT_BUTTON </s>
-0.3010 <s> M </s>
-1.0792 <s> MACRO BEGIN
-1.0792 <s> MACRO Delete
-1.0792 <s> MACRO End
-1.0792 <s> MACRO LIST
-1.0792 <s> MACRO PLAY
-1.0792 <s> MACRO REPLAY
-0.3010 <s> Menu </s>
-0.3010 <s> Meta_L </s>
-0.3010 <s> MIDDLE_BUTTON </s>
-0.3010 <s> minus </s>
-0.7782 <s> MODE KEY
-0.7782 <s> MODE MOUSE
-0.7782 <s> MODE WORD
-0.3010 <s> Multi_key </s>
-0.3010 <s> N </s>
-0.3010 <s> Num_Lock </s>
-0.3010 <s> O </s>
-0.3010 <s> P </s>
-0.3010 <s> Page_Down </s>
-0.3010 <s> Page_Up </s>
-0.3010 <s> Pause </s>
-0.3010 <s> period </s>
-0.3010 <s> Print </s>
-0.3010 <s> Q </s>
-0.3010 <s> R </s>
-0.3010 <s> RELEASE </s>
-0.3010 <s> REPEAT </s>
-0.3010 <s> Return </s>
-0.3010 <s> Right </s>
-0.3010 <s> RIGHT_BUTTON </s>
-0.3010 <s> S </s>
-0.3010 <s> semicolon </s>
-0.3010 <s> Shift_L </s>
-0.3010 <s> slash </s>
-0.3010 <s> Super_L </s>
-0.3010 <s> T </s>
-0.3010 <s> Tab </s>
-0.3010 <s> U </s>
-0.3010 <s> Up </s>
-0.3010 <s> V </s>
-0.3010 <s> W </s>
-0.3010 <s> X </s>
-0.3010 <s> Y </s>
-0.3010 <s> Z </s>
-0.3010 MACRO BEGIN </s>
-0.3010 MACRO Delete </s>
-0.3010 MACRO End </s>
-0.3010 MACRO LIST </s>
-0.3010 MACRO PLAY </s>
-0.3010 MACRO REPLAY </s>
-0.3010 MODE KEY </s>
-0.3010 MODE MOUSE </s>
-0.3010 MODE WORD </s>

\end\
