Language model created by QuickLM on Mon Jun  8 23:09:56 EDT 2015
Copyright (c) 1996-2010 Carnegie Mellon University and Alexander I. Rudnicky

The model is in standard ARPA format, designed by Doug Paul while he was at MITRE.

The code that was used to produce this language model is available in Open Source.
Please visit http://www.speech.cs.cmu.edu/tools/ for more information

The (fixed) discount mass is 0.5. The backoffs are computed using the ratio method.
This model based on a corpus of 90 sentences and 89 words

\data\
ngram 1=89
ngram 2=177
ngram 3=97

\1-grams:
-2.7451 1 -0.2243
-2.7451 2 -0.2243
-2.7451 3 -0.2243
-2.7451 4 -0.2243
-2.7451 5 -0.2243
-2.7451 6 -0.2243
-2.7451 7 -0.2243
-2.7451 8 -0.2243
-2.7451 9 -0.2243
-0.7908 </s> -0.3010
-0.7908 <s> -0.2206
-2.7451 A -0.2243
-2.7451 Alt_L -0.2243
-2.7451 B -0.2243
-2.7451 backslash -0.2243
-2.7451 BackSpace -0.2243
-2.7451 bracketleft -0.2243
-2.7451 bracketright -0.2243
-2.7451 C -0.2243
-2.7451 Caps_Lock -0.2243
-2.7451 CLICK -0.2243
-2.7451 comma -0.2243
-2.7451 Control_L -0.2243
-2.7451 D -0.2243
-2.7451 Delete -0.2243
-2.2680 Down -0.2243
-2.7451 E -0.2243
-2.7451 End -0.2243
-2.7451 Escape -0.2243
-2.7451 F -0.2243
-2.7451 F1 -0.2243
-2.7451 F10 -0.2243
-2.7451 F11 -0.2243
-2.7451 F12 -0.2243
-2.7451 F2 -0.2243
-2.7451 F3 -0.2243
-2.7451 F4 -0.2243
-2.7451 F5 -0.2243
-2.7451 F6 -0.2243
-2.7451 F7 -0.2243
-2.7451 F8 -0.2243
-2.7451 F9 -0.2243
-2.7451 G -0.2243
-2.7451 grave -0.2243
-2.7451 H -0.2243
-2.7451 Home -0.2243
-2.7451 I -0.2243
-2.7451 Insert -0.2243
-2.7451 J -0.2243
-2.7451 K -0.2243
-2.7451 L -0.2243
-2.7451 Left -0.2243
-2.7451 M -0.2243
-2.7451 Menu -0.2243
-2.7451 Meta_L -0.2243
-2.7451 minus -0.2243
-2.4440 MOVE -0.2234
-2.7451 Multi_key -0.2243
-2.7451 N -0.2243
-2.7451 Num_Lock -0.2243
-2.7451 O -0.2243
-2.7451 P -0.2243
-2.7451 Page_Down -0.2243
-2.7451 Page_Up -0.2243
-2.7451 Pause -0.2243
-2.7451 period -0.2243
-2.7451 plus -0.2243
-2.7451 Print -0.2243
-2.7451 Q -0.2243
-2.7451 R -0.2243
-2.7451 RELATIVE -0.2243
-2.7451 Return -0.2243
-2.7451 Right -0.2243
-2.7451 S -0.2243
-2.7451 semicolon -0.2243
-2.7451 Shift_L -0.2243
-2.7451 slash -0.2243
-2.7451 Super_L -0.2243
-2.7451 T -0.2243
-2.7451 Tab -0.2243
-2.7451 U -0.2243
-2.2680 Up -0.2243
-2.7451 V -0.2243
-2.7451 W -0.2243
-2.7451 X -0.2243
-2.7451 Y -0.2243
-2.7451 Z -0.2243
-1.8921 REPEAT -0.2414

\2-grams:
-0.3010 1 </s> -0.3010
-0.3010 2 </s> -0.3010
-0.3010 3 </s> -0.3010
-0.3010 4 </s> -0.3010
-0.3010 5 </s> -0.3010
-0.3010 6 </s> -0.3010
-0.3010 7 </s> -0.3010
-0.3010 8 </s> -0.3010
-0.3010 9 </s> -0.3010
-2.2553 <s> 1 0.0000
-2.2553 <s> 2 0.0000
-2.2553 <s> 3 0.0000
-2.2553 <s> 4 0.0000
-2.2553 <s> 5 0.0000
-2.2553 <s> 6 0.0000
-2.2553 <s> 7 0.0000
-2.2553 <s> 8 0.0000
-2.2553 <s> 9 0.0000
-2.2553 <s> A 0.0000
-2.2553 <s> Alt_L 0.0000
-2.2553 <s> B 0.0000
-2.2553 <s> backslash 0.0000
-2.2553 <s> BackSpace 0.0000
-2.2553 <s> bracketleft 0.0000
-2.2553 <s> bracketright 0.0000
-2.2553 <s> C 0.0000
-2.2553 <s> Caps_Lock 0.0000
-2.2553 <s> comma 0.0000
-2.2553 <s> Control_L 0.0000
-2.2553 <s> D 0.0000
-2.2553 <s> Delete 0.0000
-2.2553 <s> Down 0.0000
-2.2553 <s> E 0.0000
-2.2553 <s> End 0.0000
-2.2553 <s> Escape 0.0000
-2.2553 <s> F 0.0000
-2.2553 <s> F1 0.0000
-2.2553 <s> F10 0.0000
-2.2553 <s> F11 0.0000
-2.2553 <s> F12 0.0000
-2.2553 <s> F2 0.0000
-2.2553 <s> F3 0.0000
-2.2553 <s> F4 0.0000
-2.2553 <s> F5 0.0000
-2.2553 <s> F6 0.0000
-2.2553 <s> F7 0.0000
-2.2553 <s> F8 0.0000
-2.2553 <s> F9 0.0000
-2.2553 <s> G 0.0000
-2.2553 <s> grave 0.0000
-2.2553 <s> H 0.0000
-2.2553 <s> Home 0.0000
-2.2553 <s> I 0.0000
-2.2553 <s> Insert 0.0000
-2.2553 <s> J 0.0000
-2.2553 <s> K 0.0000
-2.2553 <s> L 0.0000
-2.2553 <s> Left 0.0000
-2.2553 <s> M 0.0000
-2.2553 <s> Menu 0.0000
-2.2553 <s> Meta_L 0.0000
-2.2553 <s> minus 0.0000
-2.2553 <s> Multi_key 0.0000
-2.2553 <s> N 0.0000
-2.2553 <s> Num_Lock 0.0000
-2.2553 <s> O 0.0000
-2.2553 <s> P 0.0000
-2.2553 <s> Page_Down 0.0000
-2.2553 <s> Page_Up 0.0000
-2.2553 <s> Pause 0.0000
-2.2553 <s> period 0.0000
-2.2553 <s> plus 0.0000
-2.2553 <s> Print 0.0000
-2.2553 <s> Q 0.0000
-2.2553 <s> R 0.0000
-2.2553 <s> Return 0.0000
-2.2553 <s> Right 0.0000
-2.2553 <s> S 0.0000
-2.2553 <s> semicolon 0.0000
-2.2553 <s> Shift_L 0.0000
-2.2553 <s> slash 0.0000
-2.2553 <s> Super_L 0.0000
-2.2553 <s> T 0.0000
-2.2553 <s> Tab 0.0000
-2.2553 <s> U 0.0000
-2.2553 <s> Up 0.0000
-2.2553 <s> V 0.0000
-2.2553 <s> W 0.0000
-2.2553 <s> X 0.0000
-2.2553 <s> Y 0.0000
-2.2553 <s> Z 0.0000
-0.3010 A </s> -0.3010
-0.3010 Alt_L </s> -0.3010
-0.3010 B </s> -0.3010
-0.3010 backslash </s> -0.3010
-0.3010 BackSpace </s> -0.3010
-0.3010 bracketleft </s> -0.3010
-0.3010 bracketright </s> -0.3010
-0.3010 C </s> -0.3010
-0.3010 Caps_Lock </s> -0.3010
-0.3010 CLICK </s> -0.3010
-0.3010 comma </s> -0.3010
-0.3010 Control_L </s> -0.3010
-0.3010 D </s> -0.3010
-0.3010 Delete </s> -0.3010
-0.3010 Down </s> -0.3010
-0.3010 E </s> -0.3010
-0.3010 End </s> -0.3010
-0.3010 Escape </s> -0.3010
-0.3010 F </s> -0.3010
-0.3010 F1 </s> -0.3010
-0.3010 F10 </s> -0.3010
-0.3010 F11 </s> -0.3010
-0.3010 F12 </s> -0.3010
-0.3010 F2 </s> -0.3010
-0.3010 F3 </s> -0.3010
-0.3010 F4 </s> -0.3010
-0.3010 F5 </s> -0.3010
-0.3010 F6 </s> -0.3010
-0.3010 F7 </s> -0.3010
-0.3010 F8 </s> -0.3010
-0.3010 F9 </s> -0.3010
-0.3010 G </s> -0.3010
-0.3010 grave </s> -0.3010
-0.3010 H </s> -0.3010
-0.3010 Home </s> -0.3010
-0.3010 I </s> -0.3010
-0.3010 Insert </s> -0.3010
-0.3010 J </s> -0.3010
-0.3010 K </s> -0.3010
-0.3010 L </s> -0.3010
-0.3010 Left </s> -0.3010
-0.3010 M </s> -0.3010
-0.3010 Menu </s> -0.3010
-0.3010 Meta_L </s> -0.3010
-0.3010 minus </s> -0.3010
-1.0000 MOUSE CLICK 0.0000
-1.0000 MOUSE Down 0.0000
-0.6990 MOUSE MOVE 0.0000
-1.0000 MOUSE Up 0.0000
-0.6021 MOVE </s> -0.3010
-0.6021 MOVE RELATIVE 0.0000
-0.3010 Multi_key </s> -0.3010
-0.3010 N </s> -0.3010
-0.3010 Num_Lock </s> -0.3010
-0.3010 O </s> -0.3010
-0.3010 P </s> -0.3010
-0.3010 Page_Down </s> -0.3010
-0.3010 Page_Up </s> -0.3010
-0.3010 Pause </s> -0.3010
-0.3010 period </s> -0.3010
-0.3010 plus </s> -0.3010
-0.3010 Print </s> -0.3010
-0.3010 Q </s> -0.3010
-0.3010 R </s> -0.3010
-0.3010 RELATIVE </s> -0.3010
-0.3010 Return </s> -0.3010
-0.3010 Right </s> -0.3010
-0.3010 S </s> -0.3010
-0.3010 semicolon </s> -0.3010
-0.3010 Shift_L </s> -0.3010
-0.3010 slash </s> -0.3010
-0.3010 Super_L </s> -0.3010
-0.3010 T </s> -0.3010
-0.3010 Tab </s> -0.3010
-0.3010 U </s> -0.3010
-0.3010 Up </s> -0.3010
-0.3010 V </s> -0.3010
-0.3010 W </s> -0.3010
-0.3010 X </s> -0.3010
-0.3010 Y </s> -0.3010
-0.3010 Z </s> -0.3010

\3-grams:
-0.3010 <s> 1 </s>
-0.3010 <s> 2 </s>
-0.3010 <s> 3 </s>
-0.3010 <s> 4 </s>
-0.3010 <s> 5 </s>
-0.3010 <s> 6 </s>
-0.3010 <s> 7 </s>
-0.3010 <s> 8 </s>
-0.3010 <s> 9 </s>
-0.3010 <s> A </s>
-0.3010 <s> Alt_L </s>
-0.3010 <s> B </s>
-0.3010 <s> backslash </s>
-0.3010 <s> BackSpace </s>
-0.3010 <s> bracketleft </s>
-0.3010 <s> bracketright </s>
-0.3010 <s> C </s>
-0.3010 <s> Caps_Lock </s>
-0.3010 <s> comma </s>
-0.3010 <s> Control_L </s>
-0.3010 <s> D </s>
-0.3010 <s> Delete </s>
-0.3010 <s> Down </s>
-0.3010 <s> E </s>
-0.3010 <s> End </s>
-0.3010 <s> Escape </s>
-0.3010 <s> F </s>
-0.3010 <s> F1 </s>
-0.3010 <s> F10 </s>
-0.3010 <s> F11 </s>
-0.3010 <s> F12 </s>
-0.3010 <s> F2 </s>
-0.3010 <s> F3 </s>
-0.3010 <s> F4 </s>
-0.3010 <s> F5 </s>
-0.3010 <s> F6 </s>
-0.3010 <s> F7 </s>
-0.3010 <s> F8 </s>
-0.3010 <s> F9 </s>
-0.3010 <s> G </s>
-0.3010 <s> grave </s>
-0.3010 <s> H </s>
-0.3010 <s> Home </s>
-0.3010 <s> I </s>
-0.3010 <s> Insert </s>
-0.3010 <s> J </s>
-0.3010 <s> K </s>
-0.3010 <s> L </s>
-0.3010 <s> Left </s>
-0.3010 <s> M </s>
-0.3010 <s> Menu </s>
-0.3010 <s> Meta_L </s>
-0.3010 <s> minus </s>
-1.0000 <s> MOUSE CLICK
-1.0000 <s> MOUSE Down
-0.6990 <s> MOUSE MOVE
-1.0000 <s> MOUSE Up
-0.3010 <s> Multi_key </s>
-0.3010 <s> N </s>
-0.3010 <s> Num_Lock </s>
-0.3010 <s> O </s>
-0.3010 <s> P </s>
-0.3010 <s> Page_Down </s>
-0.3010 <s> Page_Up </s>
-0.3010 <s> Pause </s>
-0.3010 <s> period </s>
-0.3010 <s> plus </s>
-0.3010 <s> Print </s>
-0.3010 <s> Q </s>
-0.3010 <s> R </s>
-0.3010 <s> Return </s>
-0.3010 <s> Right </s>
-0.3010 <s> S </s>
-0.3010 <s> semicolon </s>
-0.3010 <s> Shift_L </s>
-0.3010 <s> slash </s>
-0.3010 <s> Super_L </s>
-0.3010 <s> T </s>
-0.3010 <s> Tab </s>
-0.3010 <s> U </s>
-0.3010 <s> Up </s>
-0.3010 <s> V </s>
-0.3010 <s> W </s>
-0.3010 <s> X </s>
-0.3010 <s> Y </s>
-0.3010 <s> Z </s>
-0.3010 MOUSE CLICK </s>
-0.3010 MOUSE Down </s>
-0.6021 MOUSE MOVE </s>
-0.6021 MOUSE MOVE RELATIVE
-0.3010 MOUSE Up </s>
-0.3010 MOVE RELATIVE </s>

\end\
