Language model created by QuickLM on Fri Jun 12 15:52:50 EDT 2015
Copyright (c) 1996-2010 Carnegie Mellon University and Alexander I. Rudnicky

The model is in standard ARPA format, designed by Doug Paul while he was at MITRE.

The code that was used to produce this language model is available in Open Source.
Please visit http://www.speech.cs.cmu.edu/tools/ for more information

The (fixed) discount mass is 0.5. The backoffs are computed using the ratio method.
This model based on a corpus of 100 sentences and 102 words

\data\
ngram 1=102
ngram 2=200
ngram 3=110

\1-grams:
-2.7924 1 -0.2246
-2.7924 2 -0.2246
-2.7924 3 -0.2246
-2.7924 4 -0.2246
-2.7924 5 -0.2246
-2.7924 6 -0.2246
-2.7924 7 -0.2246
-2.7924 8 -0.2246
-2.7924 9 -0.2246
-0.7924 </s> -0.3010
-0.7924 <s> -0.2230
-2.7924 A -0.2246
-2.7924 Alt_L -0.2246
-2.7924 apostrophe -0.2246
-2.7924 B -0.2246
-2.7924 backslash -0.2246
-2.7924 BackSpace -0.2246
-2.7924 BEGIN -0.2246
-2.7924 bracketleft -0.2246
-2.7924 bracketright -0.2246
-2.7924 C -0.2246
-2.7924 Caps_Lock -0.2246
-2.7924 CLICK -0.2246
-2.7924 comma -0.2246
-2.7924 Control_L -0.2246
-2.7924 D -0.2246
-2.4914 Delete -0.2246
-2.7924 Down -0.2246
-2.7924 E -0.2246
-2.4914 End -0.2246
-2.7924 equal -0.2246
-2.7924 Escape -0.2246
-2.7924 F -0.2246
-2.7924 F1 -0.2246
-2.7924 F10 -0.2246
-2.7924 F11 -0.2246
-2.7924 F12 -0.2246
-2.7924 F2 -0.2246
-2.7924 F3 -0.2246
-2.7924 F4 -0.2246
-2.7924 F5 -0.2246
-2.7924 F6 -0.2246
-2.7924 F7 -0.2246
-2.7924 F8 -0.2246
-2.7924 F9 -0.2246
-2.7924 G -0.2246
-2.7924 grave -0.2246
-2.7924 H -0.2246
-2.7924 HOLD -0.2246
-2.7924 Home -0.2246
-2.7924 I -0.2246
-2.7924 Insert -0.2246
-2.7924 J -0.2246
-2.7924 K -0.2246
-2.7924 KEY -0.2246
-2.7924 L -0.2246
-2.7924 Left -0.2246
-2.7924 LEFT_BUTTON -0.2246
-2.7924 LIST -0.2246
-2.7924 M -0.2246
-1.9473 MACRO -0.2947
-2.7924 Menu -0.2246
-2.7924 Meta_L -0.2246
-2.7924 MIDDLE_BUTTON -0.2246
-2.7924 minus -0.2246
-2.3153 MODE -0.2989
-2.7924 MOUSE -0.2246
-2.7924 Multi_key -0.2246
-2.7924 N -0.2246
-2.7924 NEXT -0.2246
-2.7924 Num_Lock -0.2246
-2.7924 O -0.2246
-2.7924 P -0.2246
-2.7924 Page_Down -0.2246
-2.7924 Page_Up -0.2246
-2.7924 Pause -0.2246
-2.7924 period -0.2246
-2.7924 PLAY -0.2246
-2.7924 PREVIOUS -0.2246
-2.7924 Print -0.2246
-2.7924 Q -0.2246
-2.7924 R -0.2246
-2.7924 RELEASE -0.2246
-2.7924 REPEAT -0.2246
-2.7924 Return -0.2246
-2.7924 Right -0.2246
-2.7924 RIGHT_BUTTON -0.2246
-2.7924 S -0.2246
-2.7924 semicolon -0.2246
-2.7924 Shift_L -0.2246
-2.7924 slash -0.2246
-2.7924 Super_L -0.2246
-2.7924 T -0.2246
-2.7924 Tab -0.2246
-2.7924 U -0.2246
-2.7924 Up -0.2246
-2.7924 V -0.2246
-2.7924 W -0.2246
-2.7924 WORD -0.2246
-2.7924 X -0.2246
-2.7924 Y -0.2246
-2.7924 Z -0.2246

\2-grams:
-0.3010 1 </s> -0.3010
-0.3010 2 </s> -0.3010
-0.3010 3 </s> -0.3010
-0.3010 4 </s> -0.3010
-0.3010 5 </s> -0.3010
-0.3010 6 </s> -0.3010
-0.3010 7 </s> -0.3010
-0.3010 8 </s> -0.3010
-0.3010 9 </s> -0.3010
-2.3010 <s> 1 0.0000
-2.3010 <s> 2 0.0000
-2.3010 <s> 3 0.0000
-2.3010 <s> 4 0.0000
-2.3010 <s> 5 0.0000
-2.3010 <s> 6 0.0000
-2.3010 <s> 7 0.0000
-2.3010 <s> 8 0.0000
-2.3010 <s> 9 0.0000
-2.3010 <s> A 0.0000
-2.3010 <s> Alt_L 0.0000
-2.3010 <s> apostrophe 0.0000
-2.3010 <s> B 0.0000
-2.3010 <s> backslash 0.0000
-2.3010 <s> BackSpace 0.0000
-2.3010 <s> bracketleft 0.0000
-2.3010 <s> bracketright 0.0000
-2.3010 <s> C 0.0000
-2.3010 <s> Caps_Lock 0.0000
-2.3010 <s> CLICK 0.0000
-2.3010 <s> comma 0.0000
-2.3010 <s> Control_L 0.0000
-2.3010 <s> D 0.0000
-2.3010 <s> Delete 0.0000
-2.3010 <s> Down 0.0000
-2.3010 <s> E 0.0000
-2.3010 <s> End 0.0000
-2.3010 <s> equal 0.0000
-2.3010 <s> Escape 0.0000
-2.3010 <s> F 0.0000
-2.3010 <s> F1 0.0000
-2.3010 <s> F10 0.0000
-2.3010 <s> F11 0.0000
-2.3010 <s> F12 0.0000
-2.3010 <s> F2 0.0000
-2.3010 <s> F3 0.0000
-2.3010 <s> F4 0.0000
-2.3010 <s> F5 0.0000
-2.3010 <s> F6 0.0000
-2.3010 <s> F7 0.0000
-2.3010 <s> F8 0.0000
-2.3010 <s> F9 0.0000
-2.3010 <s> G 0.0000
-2.3010 <s> grave 0.0000
-2.3010 <s> H 0.0000
-2.3010 <s> HOLD 0.0000
-2.3010 <s> Home 0.0000
-2.3010 <s> I 0.0000
-2.3010 <s> Insert 0.0000
-2.3010 <s> J 0.0000
-2.3010 <s> K 0.0000
-2.3010 <s> L 0.0000
-2.3010 <s> Left 0.0000
-2.3010 <s> LEFT_BUTTON 0.0000
-2.3010 <s> M 0.0000
-1.4559 <s> MACRO -0.0000
-2.3010 <s> Menu 0.0000
-2.3010 <s> Meta_L 0.0000
-2.3010 <s> MIDDLE_BUTTON 0.0000
-2.3010 <s> minus 0.0000
-1.8239 <s> MODE 0.0000
-2.3010 <s> Multi_key 0.0000
-2.3010 <s> N 0.0000
-2.3010 <s> Num_Lock 0.0000
-2.3010 <s> O 0.0000
-2.3010 <s> P 0.0000
-2.3010 <s> Page_Down 0.0000
-2.3010 <s> Page_Up 0.0000
-2.3010 <s> Pause 0.0000
-2.3010 <s> period 0.0000
-2.3010 <s> Print 0.0000
-2.3010 <s> Q 0.0000
-2.3010 <s> R 0.0000
-2.3010 <s> RELEASE 0.0000
-2.3010 <s> REPEAT 0.0000
-2.3010 <s> Return 0.0000
-2.3010 <s> Right 0.0000
-2.3010 <s> RIGHT_BUTTON 0.0000
-2.3010 <s> S 0.0000
-2.3010 <s> semicolon 0.0000
-2.3010 <s> Shift_L 0.0000
-2.3010 <s> slash 0.0000
-2.3010 <s> Super_L 0.0000
-2.3010 <s> T 0.0000
-2.3010 <s> Tab 0.0000
-2.3010 <s> U 0.0000
-2.3010 <s> Up 0.0000
-2.3010 <s> V 0.0000
-2.3010 <s> W 0.0000
-2.3010 <s> X 0.0000
-2.3010 <s> Y 0.0000
-2.3010 <s> Z 0.0000
-0.3010 A </s> -0.3010
-0.3010 Alt_L </s> -0.3010
-0.3010 apostrophe </s> -0.3010
-0.3010 B </s> -0.3010
-0.3010 backslash </s> -0.3010
-0.3010 BackSpace </s> -0.3010
-0.3010 BEGIN </s> -0.3010
-0.3010 bracketleft </s> -0.3010
-0.3010 bracketright </s> -0.3010
-0.3010 C </s> -0.3010
-0.3010 Caps_Lock </s> -0.3010
-0.3010 CLICK </s> -0.3010
-0.3010 comma </s> -0.3010
-0.3010 Control_L </s> -0.3010
-0.3010 D </s> -0.3010
-0.3010 Delete </s> -0.3010
-0.3010 Down </s> -0.3010
-0.3010 E </s> -0.3010
-0.3010 End </s> -0.3010
-0.3010 equal </s> -0.3010
-0.3010 Escape </s> -0.3010
-0.3010 F </s> -0.3010
-0.3010 F1 </s> -0.3010
-0.3010 F10 </s> -0.3010
-0.3010 F11 </s> -0.3010
-0.3010 F12 </s> -0.3010
-0.3010 F2 </s> -0.3010
-0.3010 F3 </s> -0.3010
-0.3010 F4 </s> -0.3010
-0.3010 F5 </s> -0.3010
-0.3010 F6 </s> -0.3010
-0.3010 F7 </s> -0.3010
-0.3010 F8 </s> -0.3010
-0.3010 F9 </s> -0.3010
-0.3010 G </s> -0.3010
-0.3010 grave </s> -0.3010
-0.3010 H </s> -0.3010
-0.3010 HOLD </s> -0.3010
-0.3010 Home </s> -0.3010
-0.3010 I </s> -0.3010
-0.3010 Insert </s> -0.3010
-0.3010 J </s> -0.3010
-0.3010 K </s> -0.3010
-0.3010 KEY </s> -0.3010
-0.3010 L </s> -0.3010
-0.3010 Left </s> -0.3010
-0.3010 LEFT_BUTTON </s> -0.3010
-0.3010 LIST </s> -0.3010
-0.3010 M </s> -0.3010
-1.1461 MACRO BEGIN 0.0000
-1.1461 MACRO Delete 0.0000
-1.1461 MACRO End 0.0000
-1.1461 MACRO LIST 0.0000
-1.1461 MACRO NEXT 0.0000
-1.1461 MACRO PLAY 0.0000
-1.1461 MACRO PREVIOUS 0.0000
-0.3010 Menu </s> -0.3010
-0.3010 Meta_L </s> -0.3010
-0.3010 MIDDLE_BUTTON </s> -0.3010
-0.3010 minus </s> -0.3010
-0.7782 MODE KEY 0.0000
-0.7782 MODE MOUSE 0.0000
-0.7782 MODE WORD 0.0000
-0.3010 MOUSE </s> -0.3010
-0.3010 Multi_key </s> -0.3010
-0.3010 N </s> -0.3010
-0.3010 NEXT </s> -0.3010
-0.3010 Num_Lock </s> -0.3010
-0.3010 O </s> -0.3010
-0.3010 P </s> -0.3010
-0.3010 Page_Down </s> -0.3010
-0.3010 Page_Up </s> -0.3010
-0.3010 Pause </s> -0.3010
-0.3010 period </s> -0.3010
-0.3010 PLAY </s> -0.3010
-0.3010 PREVIOUS </s> -0.3010
-0.3010 Print </s> -0.3010
-0.3010 Q </s> -0.3010
-0.3010 R </s> -0.3010
-0.3010 RELEASE </s> -0.3010
-0.3010 REPEAT </s> -0.3010
-0.3010 Return </s> -0.3010
-0.3010 Right </s> -0.3010
-0.3010 RIGHT_BUTTON </s> -0.3010
-0.3010 S </s> -0.3010
-0.3010 semicolon </s> -0.3010
-0.3010 Shift_L </s> -0.3010
-0.3010 slash </s> -0.3010
-0.3010 Super_L </s> -0.3010
-0.3010 T </s> -0.3010
-0.3010 Tab </s> -0.3010
-0.3010 U </s> -0.3010
-0.3010 Up </s> -0.3010
-0.3010 V </s> -0.3010
-0.3010 W </s> -0.3010
-0.3010 WORD </s> -0.3010
-0.3010 X </s> -0.3010
-0.3010 Y </s> -0.3010
-0.3010 Z </s> -0.3010

\3-grams:
-0.3010 <s> 1 </s>
-0.3010 <s> 2 </s>
-0.3010 <s> 3 </s>
-0.3010 <s> 4 </s>
-0.3010 <s> 5 </s>
-0.3010 <s> 6 </s>
-0.3010 <s> 7 </s>
-0.3010 <s> 8 </s>
-0.3010 <s> 9 </s>
-0.3010 <s> A </s>
-0.3010 <s> Alt_L </s>
-0.3010 <s> apostrophe </s>
-0.3010 <s> B </s>
-0.3010 <s> backslash </s>
-0.3010 <s> BackSpace </s>
-0.3010 <s> bracketleft </s>
-0.3010 <s> bracketright </s>
-0.3010 <s> C </s>
-0.3010 <s> Caps_Lock </s>
-0.3010 <s> CLICK </s>
-0.3010 <s> comma </s>
-0.3010 <s> Control_L </s>
-0.3010 <s> D </s>
-0.3010 <s> Delete </s>
-0.3010 <s> Down </s>
-0.3010 <s> E </s>
-0.3010 <s> End </s>
-0.3010 <s> equal </s>
-0.3010 <s> Escape </s>
-0.3010 <s> F </s>
-0.3010 <s> F1 </s>
-0.3010 <s> F10 </s>
-0.3010 <s> F11 </s>
-0.3010 <s> F12 </s>
-0.3010 <s> F2 </s>
-0.3010 <s> F3 </s>
-0.3010 <s> F4 </s>
-0.3010 <s> F5 </s>
-0.3010 <s> F6 </s>
-0.3010 <s> F7 </s>
-0.3010 <s> F8 </s>
-0.3010 <s> F9 </s>
-0.3010 <s> G </s>
-0.3010 <s> grave </s>
-0.3010 <s> H </s>
-0.3010 <s> HOLD </s>
-0.3010 <s> Home </s>
-0.3010 <s> I </s>
-0.3010 <s> Insert </s>
-0.3010 <s> J </s>
-0.3010 <s> K </s>
-0.3010 <s> L </s>
-0.3010 <s> Left </s>
-0.3010 <s> LEFT_BUTTON </s>
-0.3010 <s> M </s>
-1.1461 <s> MACRO BEGIN
-1.1461 <s> MACRO Delete
-1.1461 <s> MACRO End
-1.1461 <s> MACRO LIST
-1.1461 <s> MACRO NEXT
-1.1461 <s> MACRO PLAY
-1.1461 <s> MACRO PREVIOUS
-0.3010 <s> Menu </s>
-0.3010 <s> Meta_L </s>
-0.3010 <s> MIDDLE_BUTTON </s>
-0.3010 <s> minus </s>
-0.7782 <s> MODE KEY
-0.7782 <s> MODE MOUSE
-0.7782 <s> MODE WORD
-0.3010 <s> Multi_key </s>
-0.3010 <s> N </s>
-0.3010 <s> Num_Lock </s>
-0.3010 <s> O </s>
-0.3010 <s> P </s>
-0.3010 <s> Page_Down </s>
-0.3010 <s> Page_Up </s>
-0.3010 <s> Pause </s>
-0.3010 <s> period </s>
-0.3010 <s> Print </s>
-0.3010 <s> Q </s>
-0.3010 <s> R </s>
-0.3010 <s> RELEASE </s>
-0.3010 <s> REPEAT </s>
-0.3010 <s> Return </s>
-0.3010 <s> Right </s>
-0.3010 <s> RIGHT_BUTTON </s>
-0.3010 <s> S </s>
-0.3010 <s> semicolon </s>
-0.3010 <s> Shift_L </s>
-0.3010 <s> slash </s>
-0.3010 <s> Super_L </s>
-0.3010 <s> T </s>
-0.3010 <s> Tab </s>
-0.3010 <s> U </s>
-0.3010 <s> Up </s>
-0.3010 <s> V </s>
-0.3010 <s> W </s>
-0.3010 <s> X </s>
-0.3010 <s> Y </s>
-0.3010 <s> Z </s>
-0.3010 MACRO BEGIN </s>
-0.3010 MACRO Delete </s>
-0.3010 MACRO End </s>
-0.3010 MACRO LIST </s>
-0.3010 MACRO NEXT </s>
-0.3010 MACRO PLAY </s>
-0.3010 MACRO PREVIOUS </s>
-0.3010 MODE KEY </s>
-0.3010 MODE MOUSE </s>
-0.3010 MODE WORD </s>

\end\
